-7
-91
85
9
41
-86
21
52
42
-89
32
-24
28
76
67
-77
-13
23
-26
-11
-22
112
18
-20
22
-24
92
37
-31
1
56
-6
-44
1
63
-56
87
118
-123
41
-7
2
106
59
-114
74
52
-113
-54
68
85
71
-55
-79
-68
63
115
92
94
-127
-121
-32
119
-50
8
105
-5
-81
114
82
-5
-69
-118
41
-59
96
-12
122
48
-85
27
76
65
-67
84
88
16
7
127
-111
-82
101
-44
18
118
118
111
-95
-125
-50
101
92
-123
64
86
6
28
55
5
91
-79
-61
-73
15
-57
82
115
-66
-45
39
34
-117
100
94
-49
-24
75
-66
-76
-98
-40
33
9
-49
83
-52
10
101
67
19
-91
5
57
110
-47
94
48
102
87
-97
46
116
4
18
48
-14
-52
94
-27
-42
123
-54
-69
-18
-6
49
117
15
71
117
57
-12
-65
98
-92
-57
22
-53
11
34
78
-62
-97
24
-100
116
70
24
-85
-40
43
97
52
-14
66
101
13
-54
28
-123
-87
30
90
127
98
112
-81
33
-54
-34
-67
80
-62
38
83
-41
-90
98
-107
52
-103
116
-88
59
-52
61
118
-117
-51
63
-75
-52
93
-85
60
-110
-19
80
7
48
-41
-52
-114
27
53
16
-11
-60
-119
-78
-106
110
30
28
76
-77
124
110
-119
93
105
91
-90
113
59
85
-1
-110
8
-18
67
-87
-18
43
-107
-15
24
-78
-31
-103
13
-105
102
66
5
-59
-94
-79
9
-122
-106
-54
26
-16
-83
-90
-70
6
14
32
-122
-102
66
120
111
-29
-26
-117
85
95
-20
34
68
52
-65
26
-22
58
-12
-118
-95
28
-78
-59
-12
33
58
103
19
-17
65
-39
116
-39
-9
-86
-29
-73
-114
-30
-105
-38
-17
-54
34
-18
-125
7
-103
-53
20
27
112
-106
66
-27
7
-42
-105
-126
-96
44
-65
13
124
68
92
-9
-37
15
-52
36
-58
104
39
113
78
-66
91
29
17
-26
45
36
-127
78
113
51
84
-124
49
47
-60
-26
74
113
-90
-91
-55
-67
34
-57
-48
-59
-93
68
-84
77
-104
-113
-88
44
60
85
31
39
3
88
38
24
39
-53
91
-36
-50
8
-93
-42
-5
-128
7
93
29
39
95
-16
-84
-78
-32
23
-65
-72
3
108
114
104
60
38
93
108
-37
28
-24
9
-98
8
-50
94
-116
-118
22
103
-12
-24
-127
101
-20
-122
43
-31
-13
76
24
-81
-16
-26
9
-21
-96
48
24
-117
44
-83
-72
-90
-47
-79
-41
37
34
109
-96
-36
5
123
119
-36
-121
-77
29
70
59
-66
-86
77
-44
-86
87
117
-110
43
20
8
117
67
9
116
-54
80
109
68
-32
-89
54
-127
44
-24
36
-80
-100
-102
-99
-117
56
63
12
-93
-5
24
88
83
-20
-42
104
-99
109
122
109
5
59
38
-59
9
-79
-68
117
-59
72
8
100
109
91
54
-56
111
-31
15
49
-72
117
69
109
-128
27
55
-28
113
71
-27
-16
96
124
95
66
-56
-72
-100
38
40
-27
45
-106
103
90
-19
-85
11
112
90
-110
9
-31
56
40
93
124
72
-39
-4
-97
-93
60
-40
-128
6
57
-99
29
21
3
-115
64
-51
71
-32
-124
-90
108
78
100
120
86
123
102
-63
111
3
82
52
6
-124
114
38
-92
125
118
-81
42
-101
-92
-87
77
42
68
67
13
-12
-91
75
39
100
-61
-32
-52
-73
28
53
-100
14
-116
1
105
84
-36
13
-95
34
38
-93
-16
-19
20
-59
-8
-14
-9
-20
-116
124
109
-23
96
117
66
-12
106
-55
44
-99
110
-100
68
-74
-4
75
-36
-17
-6
1
92
59
-12
-24
24
-85
32
-126
77
42
-23
-105
93
-93
105
-81
93
75
91
-11
-33
103
-117
33
-65
1
-44
90
58
-81
101
-77
-53
10
105
-15
-113
43
-124
22
8
73
-65
-28
-78
99
-100
60
-27
-3
3
81
-2
10
-83
-80
-126
-47
8
-45
-56
117
122
117
124
102
-53
12
-74
-23
-61
77
54
-51
-73
2
87
-128
124
79
101
-19
-104
-9
32
-76
110
48
13
-45
44
118
-6
-89
-88
49
-69
81
16
13
23
46
-32
-105
-45
16
-96
46
63
24
-93
-106
62
58
-34
-121
84
-117
8
-17
-87
-64
62
-72
6
111
8
84
114
-85
-121
-41
79
-43
-116
2
-122
-100
3
45
11
-32
-103
50
126
55
-35
-19
-96
-93
13
-29
-49
14
-10
-49
-69
16
114
-103
9
85
-127
79
-83
126
89
-117
-44
47
-8
116
-71
-41
37
25
-2
-78
-72
-80
30
-2
91
7
24
28
-85
33
-13
-18
-15
108
-16
61
-88
53
-75
-68
29
-67
42
-3
51
40
125
32
52
96
50
119
-98
-4
124
-57
-21
96
-51
43
-73
-84
-90
-57
126
-29
101
28
-15
83
41
12
-58
53
67
102
-13
-1
111
-95
-43
-102
59
27
86
-111
-16
92
95
-36
-60
-42
-8
-101
79
120
81
-90
122
47
-8
65
-18
-64
-102
38
-49
8
18
87
102
58
86
-66
108
6
-77
13
-111
26
75
-29
66
84
-76
87
-70
84
111
71
93
-26
-102
-86
-1
65
-6
-18
-126
58
-66
127
-106
67
-50
7
-9
56
-23
95
-117
48
84
-52
41
49
107
-102
72
72
-24
64
-80
-24
66
-109
24
127
115
32
48
107
67
114
83
-84
-70
41
33
-25
53
90
-103
-49
103
12
42
122
33
-95
74
97
75
16
-29
-93
1
8
60
-74
19
17
70
-44
-125
103
4
29
104
-39
35
-78
28
6
-40
98
26
-42
88
-126
102
-114
34
56
-74
14
-5
-48
-23
-89
-23
-122
104
65
-48
69
40
-102
53
-74
-125
13
-37
1
-30
96
-121
-99
-30
-78
-53
-61
-105
-68
-43
-90
66
-69
-128
74
5
-29
-35
-116
4
-115
102
49
-63
83
123
-27
-65
63
-2
-118
-106
25
124
-15
39
8
-82
-95
-38
114
-92
-1
96
68
-83
38
-28
-29
-121
68
71
-128
89
-25
-111
-18
4
15
115
14
39
14
0
30
74
56
115
-41
6
123
-61
-102
49
-32
102
-120
-7
99
-70
-77
-12
-82
-80
65
39
35
91
65
48
69
10
-43
105
-83
33
95
38
-12
40
-33
64
-124
-116
61
-89
-12
79
-86
-126
-108
125
-35
-113
40
-104
-36
116
-40
-126
121
-71
19
44
-71
-19
-29
-93
-12
71
-54
111
-78
-6
94
120
-14
62
-71
104
-29
-54
46
107
9
-2
-46
97
120
-102
-42
-27
-73
-54
126
-83
92
-109
-122
-5
-35
76
-33
-35
-22
5
-55
102
-65
115
-8
39
90
34
-49
76
-30
65
11
-127
-12
44
-82
-118
54
-106
42
48
-27
-28
118
112
-14
-28
32
-88
92
-97
74
-92
35
-26
-88
9
-86
-59
-84
-58
-69
-122
56
27
57
116
118
32
-50
118
31
-65
-82
48
46
91
55
104
72
-31
48
-6
19
81
28
37
-34
65
118
-32
21
36
-125
6
-39
-6
-87
-67
127
-105
119
114
88
85
100
39
67
64
20
103
-16
5
94
34
-87
-49
-103
-49
-31
105
-9
122
123
-40
-12
114
69
62
-74
-34
-19
32
-86
-1
24
104
18
-22
-123
92
8
64
127
7
60
-85
121
-41
-119
94
-123
-92
-54
-17
54
-83
64
-28
109
-18
13
123
-69
-16
105
66
-31
42
7
101
-18
6
26
96
-126
-49
-6
-32
82
39
-66
-59
51
-41
107
-93
-71
11
13
-40
-70
16
82
47
5
-95
8
-48
-69
-69
91
-2
105
49
-45
41
72
67
-82
-71
109
-28
-27
-12
70
-56
-7
-24
35
-23
-76
73
-100
70
69
17
-90
-35
60
-88
-119
105
-39
9
25
-31
34
-17
-125
1
-30
122
-25
-38
-27
65
85
103
-23
76
-80
-32
11
32
-11
114
64
58
-17
-30
-87
-108
-60
84
-42
35
-114
-20
123
104
-43
-95
28
81
-108
-67
46
-111
6
68
-85
15
97
-65
-29
2
-99
-68
78
-116
90
-116
-22
94
33
28
32
80
-108
-33
68
7
-118
20
114
114
88
68
70
67
-36
-67
-25
-72
55
71
107
-112
21
-74
33
7
-103
84
-68
104
-86
3
-112
-108
-17
-127
-45
-45
-20
-76
-1
82
82
-68
61
-20
-6
-121
5
-123
74
-87
-4
-2
-1
-51
-90
12
-79
54
-2
69
23
127
39
52
-111
9
-89
77
75
-42
-35
104
-100
-7
-124
-29
32
38
58
57
97
-29
29
-123
-74
-23
-15
53
57
-36
-93
102
-2
57
64
-19
44
-89
-124
-64
-11
-52
-120
120
-63
-110
73
-23
-61
-17
-114
90
113
100
115
97
38
-89
-105
-64
-92
78
18
10
111
-113
58
-46
37
19
-48
53
17
-48
54
-92
24
22
67
-70
-112
-68
-60
52
-63
-23
116
-37
-116
-73
44
83
-59
-40
101
-27
-17
-24
112
62
-85
122
35
4
7
89
-57
-10
99
44
-10
-116
15
42
76
-124
-33
-45
53
98
-13
119
73
62
-112
-101
-76
122
114
-33
84
74
96
49
-86
-122
21
-21
-45
126
-104
38
-63
-122
-15
-114
-119
13
-107
-61
-8
-77
94
-57
-70
-24
19
-24
-107
94
-103
63
-50
11
-16
-27
-72
-113
19
-66
-62
104
32
63
123
33
81
120
-34
-69
-7
75
-107
-57
-21
71
1
3
-73
105
109
-11
-52
77
111
-108
-29
73
113
-41
-15
81
31
-103
8
-47
-57
-6
93
-111
-69
-26
-85
24
55
61
45
110
-74
85
127
22
13
120
27
2
105
-40
94
-97
-24
-86
106
-23
112
106
62
67
61
93
61
-107
-16
66
67
-42
59
86
-40
53
-54
1
-92
20
-96
94
-67
89
73
-74
-27
24
-8
46
-18
109
74
-118
15
-38
52
-121
-124
-100
-107
-93
-9
-41
88
-108
83
-95
35
-81
85
23
-57
104
31
71
123
74
-41
-128
8
13
58
-80
-100
-120
82
-96
-83
102
-125
-27
46
59
-122
43
99
82
13
-17
46
113
5
86
14
36
71
-38
-35
-30
111
-63
-21
-82
-110
5
114
-17
-115
33
-75
23
-121
-108
97
83
-30
9
121
-61
41
50
-38
-126
-70
-84
-56
3
109
67
14
-8
72
2
40
-69
-41
65
-118
122
-98
-58
-61
8
-20
-99
-127
92
30
4
-49
-107
99
27
-44
-28
66
-128
-97
62
109
86
-77
-31
-36
16
-1
3
5
30
-127
-62
99
85
124
-10
-71
-108
-103
-48
10
36
124
-20
-49
-28
16
6
-67
86
-89
84
41
17
-57
96
21
-80
92
45
-12
-48
30
7
114
21
103
-85
30
-46
-7
-84
-59
86
-72
-100
-66
27
-19
-66
13
81
56
13
63
-114
-84
14
99
-83
-47
-66
-36
-21
63
-97
-83
-97
60
-105
-57
83
-90
-44
53
-63
-56
-43
6
21
69
19
-85
-33
-5
-59
14
30
83
127
-109
72
-29
-92
-115
-59
-60
30
-116
-115
105
21
-60
-7
8
-67
100
-2
-89
-34
73
-44
19
32
-124
-30
94
54
-25
105
-87
-73
-100
-85
-89
127
1
74
-64
-47
-50
115
73
81
-109
18
18
-95
99
106
-35
-43
39
-104
12
-18
-125
-1
-36
-59
-34
-42
-77
110
-26
30
-55
-33
-110
-82
-115
76
-115
122
-66
43
41
19
41
-99
-28
-39
-34
46
-63
-50
97
-126
-76
113
109
106
48
-28
16
-119
126
-41
47
-72
-91
77
68
35
-115
21
-78
-56
-20
7
110
63
126
88
112
87
53
-91
-33
-55
-86
37
-7
-123
-66
-109
-54
-120
107
-117
49
-34
-21
50
15
-47
-115
28
-11
-94
96
-39
72
29
64
3
52
-71
-11
13
70
-17
-17
29
28
23
-118
-40
-79
-57
3
125
41
-69
-73
89
3
-117
-16
109
-46
-75
-54
122
-111
-121
57
78
-25
42
80
-36
-57
57
-27
51
-9
12
-43
-122
0
-54
59
2
-39
104
-38
101
-39
-10
-51
-55
-63
64
98
30
-101
-34
93
-83
-61
89
-116
76
-8
7
-121
35
-96
26
-107
-101
66
111
4
20
-44
-64
-96
-59
-115
-87
65
83
-25
118
52
-109
69
26
-75
14
-22
-39
43
65
106
-107
29
127
-100
-26
102
51
-13
118
36
118
-118
121
22
34
-29
-51
112
-43
97
-89
-41
35
24
44
-88
-88
-125
-2
-3
16
-107
-43
-35
-5
-61
3
106
54
51
119
60
-39
-30
-57
-85
-21
-83
86
-127
51
120
-92
-46
99
-7
-9
28
106
-113
36
-108
-29
84
-80
28
-20
-78
-121
109
0
-106
-119
1
82
-84
66
85
-80
7
-31
-4
54
61
58
0
33
-96
-44
53
-98
29
-61
-15
68
-117
-35
28
-67
-46
-50
120
-50
56
12
-113
122
52
-108
-64
-34
10
-96
92
7
-81
-33
75
-111
-83
10
-104
-30
107
-30
53
-112
-128
-59
-7
-55
-33
124
-28
-79
46
33
112
116
-3
78
-118
17
-62
88
-44
-124
-73
38
126
-120
52
33
2
77
118
-12
-40
61
-84
-107
68
112
54
-126
94
76
-126
7
30
-17
125
-19
-61
-111
-70
-18
123
111
-76
-65
83
-40
38
109
-96
-98
-80
-16
-62
120
114
66
106
127
-23
-14
9
114
-100
30
1
92
-127
71
76
-120
-53
-11
24
-17
14
-2
43
63
-90
-124
-123
48
-117
31
64
-90
124
68
92
40
-22
-64
85
-26
99
58
35
50
69
-76
113
-99
51
-26
29
71
97
-91
61
-63
11
-118
-46
-38
-92
-57
98
38
-72
-96
116
-99
56
-16
-97
36
-53
-102
-92
-109
-127
61
121
-128
-90
-52
11
-101
-96
-25
-26
39
111
46
-48
50
-121
-15
27
-125
33
-47
22
-122
-26
77
63
118
44
-49
-13
85
81
106
43
-111
-108
110
-45
-100
38
3
-91
-76
-85
-112
68
122
115
-36
64
-43
110
94
102
109
12
-109
122
101
69
95
-107
-99
-9
-117
23
-37
-10
-102
40
17
-60
-37
99
-98
-66
-116
-94
-10
-74
-95
-97
-95
-112
-58
119
-53
-22
-106
-94
-35
20
127
75
-63
-108
27
103
-94
45
88
-17
45
116
95
23
-99
67
-15
-78
24
-45
-41
-56
102
-91
68
-60
-66
-107
-91
14
106
5
28
-113
67
-108
-41
-69
-58
125
126
-37
-54
-66
-126
-33
-33
18
35
-92
51
-59
-114
105
-117
-105
38
48
57
124
-75
-9
72
101
114
79
-58
40
-89
-26
112
43
-122
-63
-58
27
3
-1
9
83
-49
119
83
-30
80
-14
-57
103
-10
-20
65
78
1
-111
-53
-34
102
-40
-57
6
51
118
-49
-83
-119
-84
81
-26
-73
47
-55
92
52
-59
2
-120
-27
-97
-37
100
31
-109
-30
54
-77
-27
25
-26
-11
59
-9
10
-29
47
53
-114
1
-21
13
17
43
47
88
5
-70
-58
-24
-94
124
-120
112
-118
-84
-65
66
125
24
-90
-71
-20
73
-85
-51
-58
-83
76
-99
-39
-118
-98
43
-53
-15
61
7
75
-10
-55
92
-3
113
-59
-58
23
95
98
12
106
-49
40
-116
-64
0
-48
24
83
74
-2
100
3
-40
-71
126
-33
-121
-91
-99
-102
20
-29
33
-99
-86
-12
77
-92
119
-106
33
33
24
69
-77
-122
41
98
32
-87
-29
-24
-117
6
-21
-70
-46
-110
-7
58
-56
-87
-63
118
60
16
26
72
40
46
9
-88
21
30
-82
0
26
-109
-20
56
67
102
-59
-27
-78
106
-43
-84
47
32
-121
-48
71
89
19
-124
-91
-128
62
6
-99
39
-110
60
-83
-57
104
-45
92
60
24
34
-110
14
-48
34
18
-106
-108
40
-126
-82
37
96
-2
7
-112
-54
-24
-29
116
59
-114
-104
38
103
84
-22
-121
-60
-20
-91
-109
-51
74
-15
93
3
-9
26
40
79
115
107
-34
-95
-12
92
-10
76
-9
-50
-1
97
75
-15
46
-9
38
-116
-105
-127
50
12
38
-6
33
96
-43
39
-6
121
-22
-100
18
-110
96
52
-10
95
56
25
-47
-99
105
-62
121
50
19
-44
-36
-109
91
92
74
-72
90
105
94
68
1
5
-10
-97
107
50
55
-32
84
41
-49
-125
-8
-34
-24
-51
16
64
-48
-104
103
55
56
-21
-81
-38
-73
-96
70
-45
6
72
-77
62
-83
-94
101
-8
-3
24
91
-21
-63
-92
-22
9
-8
-85
107
-41
-26
-4
-104
105
21
21
58
-70
126
-83
38
112
68
-28
104
-21
-114
-28
-25
17
111
52
-74
125
-98
-82
43
70
109
-124
76
-117
4
115
57
71
65
16
-69
-9
114
-87
51
13
107
-17
76
-22
-68
40
-21
14
-24
-6
-73
59
56
75
13
54
75
10
11
-34
35
65
127
48
10
-15
21
125
49
56
65
-11
77
122
124
-38
33
72
99
87
10
-51
124
-66
-76
-17
58
68
53
16
-123
-113
-53
-18
-128
107
-126
127
-94
-29
-19
-58
18
-77
-4
19
-111
108
116
22
-102
-105
-45
-30
-80
-81
80
64
17
-126
94
71
27
-124
-34
-18
81
31
-55
-2
-95
-110
-44
25
-102
124
29
28
49
15
-110
-83
114
-60
59
-46
-62
-67
-1
87
97
102
-77
-11
-122
-75
100
-86
49
21
-37
-81
62
-8
-69
-30
-41
-92
-95
-95
-117
-73
40
-86
112
-103
-124
52
23
-61
-78
83
-126
77
-47
7
-75
-26
4
39
-8
64
-27
38
-29
110
-20
-55
99
-127
106
-96
27
-127
-97
116
-92
-89
-34
76
-109
-125
83
-95
29
118
-78
113
98
82
50
8
22
11
-19
98
-5
-109
-9
-3
120
-91
42
40
-3
-43
75
-7
41
-75
44
15
-39
48
51
120
-5
-61
41
16
11
-35
-103
110
-49
-20
7
50
103
-63
64
-128
25
-47
-12
114
-38
38
113
92
-55
-96
-101
-118
89
67
68
-128
-111
-63
-56
42
-75
11
31
-115
47
98
101
122
-55
-59
-35
17
-120
114
-123
3
40
-28
-77
-41
95
3
-67
59
100
-73
-124
20
87
53
-52
42
-109
-5
-118
-52
10
-109
125
-46
88
-34
-56
-17
-125
87
85
45
-63
105
-63
-109
-61
-111
-14
27
-92
-110
60
116
-51
-48
-36
88
-95
-73
38
-29
13
-69
3
50
26
-12
125
-45
64
-73
106
-17
101
-3
-3
82
77
-21
-82
-115
-85
-122
16
-98
-89
-69
-106
-59
-3
-100
-7
-74
37
46
70
-12
37
94
51
123
121
-62
62
3
106
81
14
96
-91
-109
-28
-1
-39
31
-78
-44
58
11
-25
9
-5
-58
9
122
-72
-126
77
-5
102
38
54
87
105
71
-80
50
-120
5
-21
-3
-99
68
60
-48
89
-88
3
67
-3
71
-94
-12
94
-91
-29
33
-105
97
-3
65
-108
-13
60
-45
-3
-39
70
110
-128
-67
-99
14
52
-79
-51
89
60
121
113
-119
19
14
-116
39
48
-8
-111
54
30
-116
96
-60
-100
-10
71
56
48
-112
57
91
119
23
-70
84
69
22
38
-4
25
93
-22
3
99
-115
-124
-121
90
80
57
119
-104
-7
117
35
6
-117
22
118
-25
-33
56
-52
44
-126
42
41
-116
119
95
-108
-29
72
56
19
-111
-91
41
3
-64
-67
-126
121
-74
61
-68
113
-87
80
-58
112
-46
62
99
-68
-50
82
-104
-128
-89
-88
92
-11
-105
51
46
101
17
-73
-23
-114
52
-118
54
-104
31
51
124
123
77
-43
2
-128
100
2
55
-2
-54
-110
55
47
106
-94
-11
-23
-11
-43
1
-121
-103
62
-20
109
-41
-100
101
-75
-84
-100
-12
-31
116
-120
-76
81
6
-117
-25
-91
60
42
97
108
26
-97
-79
-99
-26
14
108
57
14
-112
77
25
-57
-83
107
4
-118
-74
48
92
26
98
-27
-45
-126
65
38
-4
20
-10
58
16
98
92
77
-109
42
-58
101
123
-44
0
22
-68
-86
120
-112
-26
48
-108
115
-106
23
84
-39
120
-105
-53
-90
-93
32
-11
21
-112
106
-64
107
-80
76
-53
-122
37
90
43
47
28
-128
-31
9
41
31
-13
124
-35
-41
-46
-95
-61
109
110
58
1
17
6
-8
110
-96
81
-93
-15
-41
-61
0
-29
34
93
-20
75
-15
-29
71
17
-82
29
-11
85
13
54
-50
-90
52
3
124
47
-38
20
61
-94
-118
-59
-84
30
8
69
45
9
11
79
-110
-15
54
-95
-128
124
117
-15
67
25
83
65
35
-46
5
-90
-18
-25
-60
-22
-97
66
62
71
118
-106
-23
-24
66
95
106
3
-96
37
-108
70
-31
88
51
105
-107
-86
-11
19
-88
24
-18
-126
-46
-110
-120
105
-104
-120
-61
48
47
-80
-24
71
-66
6
74
78
73
23
-124
-99
-128
81
-67
-13
-122
0
41
-37
58
39
-124
14
-66
-45
-24
126
53
-122
-20
88
61
-67
123
71
-2
-2
107
-107
127
123
-21
18
-77
74
86
-51
65
-45
-61
5
-102
-60
18
-75
-34
-22
116
51
-12
32
-7
62
-88
86
6
-101
99
-101
67
-61
91
88
25
12
-26
-49
-77
69
65
-103
33
-122
34
35
-24
54
120
-24
123
-42
-64
120
38
-82
115
78
54
-63
92
108
96
-2
79
-100
41
-96
-104
111
35
-97
-108
39
-108
67
-20
-41
13
107
108
35
-31
-73
47
-110
-14
58
32
123
53
-27
36
-67
48
-18
72
45
54
-110
24
80
-106
-109
77
-123
110
50
10
89
45
73
-55
24
105
-50
-103
95
-118
22
-15
-33
-78
13
79
-93
-50
-26
-56
-68
16
-75
94
-33
-52
-117
114
-93
52
63
-43
44
-126
106
14
5
-126
-84
121
25
18
98
30
-110
57
-22
90
84
-61
-112
-86
-49
71
87
-77
14
85
114
30
-63
-49
-110
31
-54
-7
50
5
-16
53
9
88
107
-54
-34
72
50
18
37
87
4
-106
76
17
-23
80
-99
114
125
89
55
-111
52
-18
-78
-108
-90
-8
-100
123
-68
27
-128
-121
75
-44
-2
78
5
14
-13
-31
86
-41
113
25
-109
79
17
34
-122
35
83
55
-59
82
-122
-78
116
42
19
-30
94
-116
-52
-45
113
73
-24
-52
27
3
126
-85
-80
-98
15
110
-113
-44
125
118
104
-94
-43
14
84
-49
-88
-60
-48
73
122
-71
89
123
101
72
48
11
62
35
64
99
-127
-97
57
119
89
5
27
-4
-5
-115
124
-66
90
73
18
94
124
-62
-101
115
-85
-89
124
-48
-71
-44
-93
114
103
-53
114
-71
-65
-69
-4
100
-57
-46
75
126
9
-31
95
52
-46
-5
116
6
-89
16
20
5
-55
-71
-37
-92
78
-14
-50
100
80
95
-18
-80
113
-47
56
-22
-115
-76
36
9
22
-44
20
-27
-103
20
-115
-100
67
116
41
48
72
40
-30
116
120
-67
46
-105
108
-93
-90
3
-124
-99
-116
52
-32
88
-120
69
100
121
-17
13
28
65
37
86
-30
-29
-107
36
-48
-78
56
-73
-115
-41
84
81
40
-85
41
116
102
-18
-46
-70
127
76
-30
-3
-51
-1
56
-36
-96
-45
94
64
-87
111
9
-118
50
73
-89
-115
98
98
-122
-10
39
-16
75
-1
-126
-50
88
21
-25
-24
5
-120
25
-7
14
-118
35
22
110
-109
-28
89
6
53
43
116
-90
-14
-28
-11
-109
83
-62
13
86
-85
65
12
-34
-72
-50
-65
-9
-116
97
99
-111
-21
-98
97
-16
-7
-125
24
54
21
-83
-128
37
-18
92
-46
15
-114
-55
-87
115
-16
10
2
-66
-74
65
-4
48
53
110
10
127
-63
-2
-35
-34
-63
63
3
-16
-37
120
-25
-93
93
47
-22
39
123
-72
-77
102
55
-112
24
95
-33
102
-114
-89
60
-84
-105
119
-17
95
105
-34
-20
116
82
119
71
-112
-88
85
-1
74
-91
38
118
-101
43
-117
117
66
5
40
66
47
-127
107
113
106
-4
-91
-18
112
-34
104
-28
66
105
-124
-40
106
-93
-47
26
73
-93
56
37
15
64
-51
-8
56
-47
14
-45
122
65
-93
-108
11
48
-16
41
-71
-53
-2
83
-70
12
3
23
-86
-105
-72
-122
100
11
-46
-118
125
96
9
116
9
51
115
87
60
-86
-86
101
-124
92
-92
113
-112
-59
-15
-52
67
-45
-112
107
2
103
-6
58
-108
114
-84
-12
15
-42
-14
-19
111
66
-28
-10
95
-17
27
-17
4
37
26
-4
24
16
-7
-88
-15
-119
-61
84
-126
-83
100
-18
-103
-35
74
39
-78
35
96
-28
15
1
115
-59
-90
22
-3
-42
85
107
-44
-98
-81
-37
-59
121
-128
-39
-38
21
-91
32
-117
99
93
6
37
103
-97
-112
1
110
77
13
-45
-119
22
82
66
56
25
-66
33
119
-58
114
-114
-57
-88
-104
-122
106
-42
-21
-19
-51
-55
-64
-104
28
98
54
-69
-69
-98
-39
93
-93
78
-82
118
102
84
-76
26
-128
104
-17
-121
-52
74
31
109
16
-24
-116
74
-94
-127
78
-98
94
-8
-27
-89
86
44
-1
24
-4
-15
-86
100
-96
-94
-90
-61
-55
125
15
71
-86
1
-88
73
27
29
-48
-48
-18
123
103
5
-66
-84
56
-39
8
-115
-5
63
109
47
-128
-99
-64
-122
-23
67
123
113
43
93
33
-3
-112
-37
12
-125
-55
-96
-9
62
92
-14
-114
87
104
110
-125
-114
-67
-95
-35
85
14
-100
32
-42
85
-120
-105
-33
95
25
93
13
112
25
-17
4
47
-26
117
-126
-96
86
-79
126
82
-57
-89
-72
70
17
-85
-97
-38
-104
-83
78
27
-68
-101
108
-128
-34
-113
23
83
107
-103
-53
-76
-125
-102
117
36
-52
-109
71
-95
49
102
111
-108
-15
108
-121
108
31
65
51
-105
-1
-85
-110
-6
12
-23
-19
-85
-47
-97
127
-99
27
52
28
-39
9
-3
-100
58
-25
123
109
0
-14
-114
46
3
13
66
86
-79
-103
13
-102
-94
-43
-28
-24
115
110
-62
-2
-24
-55
116
-107
73
-73
50
-80
-22
126
11
-52
-10
113
56
-108
126
-86
-73
-104
19
122
-116
-80
56
-27
109
3
-57
-89
40
45
122
-76
-36
74
122
-50
74
95
-13
-19
48
-50
35
-12
29
-100
79
121
-99
-1
124
-18
70
-59
-58
116
101
17
43
-56
27
14
-81
94
87
53
-122
0
64
-116
108
-12
35
82
-75
-62
-44
64
-100
102
-12
0
-79
-79
-53
62
40
60
-32
27
-74
37
-105
-69
-10
97
-28
-96
-115
26
-118
-10
3
-42
-90
72
-103
-28
69
-113
52
42
-60
64
-60
-45
71
-88
-52
-37
-51
-99
90
65
63
-67
-78
-70
-41
-74
-96
-34
-6
121
-124
-103
15
51
87
120
17
-103
75
-55
75
91
-30
-121
-52
-20
79
-64
-104
-22
-6
15
-79
24
-77
102
87
-30
-10
25
102
112
-22
-22
-119
37
32
107
-122
-35
-71
102
64
14
-108
116
28
-64
-109
-99
-9
-72
22
60
-60
1
-83
-89
-38
92
-63
-57
113
99
54
39
16
87
-108
-95
-123
-2
15
73
121
-54
-56
-108
-102
-52
108
82
-82
51
106
15
-101
18
-102
75
48
34
77
-107
101
56
-117
-36
99
66
49
-3
16
-66
-48
71
-38
-104
101
-58
-113
-117
81
107
-94
78
66
30
-28
-20
-80
-101
118
10
93
-70
35
121
113
-47
-4
98
20
102
32
-83
126
118
-91
38
-58
118
-97
70
0
-97
40
-95
-3
-31
-101
-59
-64
88
-36
110
53
-49
-53
96
-105
125
-44
12
50
-108
-63
77
27
-33
-68
-23
87
55
-22
-24
76
-5
64
-94
49
-23
107
2
-37
59
70
-25
10
1
91
-48
-115
-71
31
36
-10
-90
43
-16
-123
69
121
92
-83
-92
-94
122
-47
68
-58
-55
-87
79
-115
-51
21
-37
1
79
-70
-91
67
-23
98
13
-27
127
-43
24
-30
125
62
65
7
-21
-79
-126
22
23
58
-65
-4
-111
41
45
57
-106
-7
-111
51
74
-7
53
80
99
-109
-46
-114
120
-25
-56
98
-71
-28
21
117
-7
-74
35
14
-23
-94
33
-80
-36
-50
31
34
87
-125
-82
-14
-60
13
113
-47
7
-49
-8
95
-45
38
64
-73
112
-117
13
3
102
-36
-19
89
-121
-125
-74
-53
58
-120
-28
-88
125
-94
49
-101
-34
81
-69
-49
32
73
13
-46
52
45
32
-16
-40
35
-57
4
-70
-74
-90
-125
-67
75
122
-93
68
88
-61
64
-105
-48
-7
19
-14
-77
-74
39
83
56
-99
53
21
52
41
-2
7
25
-21
5
-83
-4
-111
-17
-79
44
63
-60
-25
55
-21
-123
11
-8
8
-115
8
-49
84
92
100
77
77
57
-85
-40
43
65
-107
86
-20
123
4
-61
-23
64
-4
67
-103
119
115
45
-9
12
87
-77
-79
-100
-48
-120
84
-69
-53
126
51
74
8
-74
18
-119
13
-114
34
-40
-57
50
52
7
-91
-117
123
62
-15
-34
-104
-5
115
62
-125
0
-19
64
-98
-22
26
55
30
108
19
2
12
57
107
56
40
-106
-62
33
92
-64
-93
104
94
23
-26
-60
-11
82
3
90
-101
-1
114
-5
41
-11
-109
-93
15
19
-88
-92
115
94
121
-114
125
87
-114
-90
-110
-128
33
-119
19
-43
-24
-53
5
-98
-88
-38
-1
-24
21
-38
32
-16
119
-124
102
-35
-25
-25
-108
-15
-28
-5
-45
105
-30
-125
29
39
-63
-123
114
-76
-55
77
-25
35
13
40
102
-128
120
4
36
-97
94
18
109
-109
74
-84
-112
43
-74
73
-93
69
94
-115
-43
-8
60
-14
-77
51
-82
6
-27
79
-58
52
-90
37
11
103
-49
41
-106
-51
-88
-92
62
-26
-84
63
-89
11
68
121
-84
125
127
42
-12
61
-11
52
-54
82
-72
13
-37
-43
-18
-25
10
-99
30
24
-12
-16
113
-77
24
-99
61
-124
34
94
-37
-114
-62
75
-70
34
-53
-128
100
-3
-41
-10
-109
82
-13
-88
-98
77
47
86
5
98
57
93
-22
14
43
-78
-4
-18
-57
100
-36
-92
-55
-101
75
-24
60
96
16
91
17
-82
110
-75
99
101
-4
78
-24
94
13
71
-67
-40
40
-1
41
-53
-121
-34
75
-103
112
81
-94
-30
84
-90
122
-51
65
-109
-12
-11
-87
64
-101
103
21
-27
119
-87
77
27
-103
39
19
24
89
46
87
-122
-88
-74
96
-122
100
-26
-73
87
38
52
8
-28
111
-62
-96
28
48
-54
115
-56
-92
-127
-44
66
62
63
47
-82
-110
-84
-68
30
-89
76
-48
-68
115
73
125
-115
122
-9
-46
53
-72
-62
2
112
-48
-96
-51
-14
107
-79
-66
-13
97
95
48
86
-86
97
-9
114
-121
15
-117
-13
127
-119
92
77
35
111
-4
-5
-88
-78
-73
15
-51
-58
72
108
-128
17
49
-13
47
17
-122
-36
-63
56
-94
17
1
8
11
18
-85
14
71
55
35
-121
45
116
-126
-125
74
76
-110
107
-25
-38
-39
35
48
121
-88
-12
-101
100
61
49
-105
117
-75
105
-119
79
83
84
31
68
-100
96
108
-75
22
18
13
-5
114
-74
42
60
-36
74
-42
83
74
-67
87
107
8
81
15
121
119
101
6
-13
90
71
-122
-20
9
23
-17
-115
87
-77
16
-17
14
-29
-81
-85
14
5
68
-26
-97
-117
-52
69
81
-49
-5
20
20
-105
18
-76
33
-10
64
15
-75
40
111
-108
94
81
-44
-50
31
-86
-62
-128
35
-62
-84
-57
-110
41
105
-73
41
-16
116
92
-12
-41
-90
-19
56
60
-8
91
32
-44
92
-32
127
27
114
-31
8
79
-98
90
-72
-94
-98
-16
-82
-79
-39
1
24
2
24
-84
-10
-68
-55
11
72
123
-116
57
70
-44
-80
99
109
69
-59
-21
58
33
91
-70
-48
-38
-32
20
99
34
99
41
-63
-85
16
-4
-113
-27
22
88
-45
3
-6
74
-71
-23
-8
-71
31
54
96
-9
-41
98
92
38
110
121
94
-1
52
-18
-54
94
15
82
91
-82
-55
-88
104
113
-62
-47
-58
101
-13
-40
121
-84
91
113
-93
-22
-72
64
-123
-43
-81
123
-56
-67
-62
63
-38
-40
-25
-25
45
34
86
-21
-80
28
-121
-72
2
-47
81
116
-123
89
110
81
42
-68
-92
-83
11
-106
41
6
-34
-64
121
108
-51
-124
-99
37
-35
125
32
68
61
-47
25
107
-105
14
-121
-57
-57
-24
36
-60
66
35
-70
-100
-57
14
23
-112
-31
-122
87
-43
-113
53
-69
70
-3
61
-60
-90
-45
-101
-74
-66
82
18
20
96
35
-18
-71
105
116
124
93
-10
-55
-90
-15
-74
-5
26
65
-91
112
-60
-80
21
-38
12
38
-29
-70
112
-41
-126
43
-107
-91
24
-82
65
-28
-1
-25
115
-85
110
-88
-75
125
16
-107
-64
-67
-65
-111
60
64
-19
-73
-66
104
-80
80
59
-76
-82
69
-58
14
109
-53
103
-4
-112
49
-127
9
-31
-42
-62
10
-28
-119
-98
79
-77
60
34
47
-89
126
-2
-119
-3
-41
37
13
67
49
17
-7
-14
-43
11
61
-18
-64
-110
91
-74
80
-14
-98
50
86
-107
-51
56
-20
-125
-97
87
-7
33
118
72
109
-59
-4
65
-118
-100
-47
66
4
-74
26
-101
-9
54
79
-31
75
-85
-51
28
78
-118
-62
-14
24
-27
61
22
-87
-121
-32
66
-125
-109
68
95
-6
-79
-118
-56
-6
60
22
-13
122
-110
-6
62
94
-50
-46
-81
71
56
-110
-115
-1
98
-33
-83
16
117
-3
-9
80
-65
72
-47
24
-73
6
-65
46
112
-84
-21
-123
38
84
54
-42
41
-72
-37
-90
-19
-63
99
-103
84
-104
-45
-12
-32
-62
64
-19
-32
-93
36
10
15
-114
89
111
107
119
56
-63
-7
1
9
58
-114
-13
-3
-66
53
-83
52
-57
59
-109
113
122
51
91
74
-27
42
-38
62
-22
0
-125
-18
52
83
-84
-62
118
-14
120
-88
-98
-62
38
-99
86
100
24
-30
34
122
53
-15
119
-78
-92
58
62
122
-56
121
84
-13
112
-25
-66
-41
56
-86
-72
-14
-22
-76
-127
-117
-76
-114
112
86
46
127
-9
33
114
50
26
-65
79
-86
-111
87
75
124
-1
34
89
-29
102
41
96
-25
35
-6
-69
41
127
54
68
-35
29
72
95
-46
35
-117
87
-22
-117
-66
46
-1
52
-29
-10
87
22
-52
12
127
-115
75
-76
-19
-77
-67
-5
114
49
-34
-37
30
-57
-25
-13
-113
-90
79
-23
126
-62
82
50
112
-113
-77
-122
-106
56
-108
3
-1
-16
41
25
76
-50
-71
-27
-90
-3
125
100
-12
17
100
114
21
119
-102
58
-11
106
96
-32
92
-2
99
96
65
-125
-10
-9
-77
51
-88
2
89
98
71
-34
33
50
-52
110
93
-97
-101
84
44
-44
-56
-105
45
105
118
118
-82
-40
-45
3
120
-50
82
12
17
64
-76
-126
-77
95
-51
97
-52
127
43
94
116
-48
-75
90
-105
-14
70
-75
-83
-80
-119
-99
-83
3
60
-114
-43
-90
-123
-111
115
82
-70
57
18
-117
-55
-97
11
10
-80
-16
24
-127
-75
-29
-105
-103
-50
2
-75
27
122
67
43
23
82
18
2
64
-39
-35
-104
-121
-94
124
-81
35
89
-106
-67
-19
-69
49
75
47
-77
59
-105
62
73
-18
75
-88
-43
-34
-1
31
-75
-40
6
108
22
-90
-128
90
82
-54
91
-121
69
-79
69
-84
72
75
50
-106
-14
-95
-117
-97
101
32
83
46
35
70
-111
-101
-38
114
-36
3
-44
-45
40
-3
-38
91
-17
-27
1
114
-69
80
117
90
-67
32
-7
-16
-98
-15
-64
-121
-83
-41
-99
-37
-20
-114
51
-104
60
75
-104
-27
-61
-12
123
-125
30
105
-99
109
43
-45
-108
22
-121
-12
-22
-69
16
125
-46
-4
14
-6
-81
-9
-1
97
28
42
-126
-93
-45
31
-76
-67
-12
42
-17
42
-128
-127
-57
50
113
104
-126
-32
50
63
-15
75
73
-47
9
44
-53
-89
116
-84
101
66
0
-26
65
-52
-33
81
-17
-75
-39
-123
21
81
-17
-38
-99
-71
-102
70
-2
63
-70
40
-19
-100
19
90
46
-37
98
-93
55
-123
-10
83
31
-39
78
70
50
-73
85
39
-112
16
-60
93
-16
36
2
-50
30
-64
5
-58
52
43
-47
71
91
-17
-25
37
39
38
-44
6
-63
27
72
-3
103
12
-74
-127
-42
18
101
31
73
60
-127
21
-30
7
32
-17
-22
-13
4
-83
23
46
57
-33
53
82
-9
-29
36
118
-117
-38
46
-55
-82
-118
-41
-108
-123
-52
-82
123
49
-118
-16
116
-61
-47
-35
-11
-21
14
-55
13
-89
107
-24
-12
89
-7
125
-121
